"","V1","V2","V3","V4","V5","V6","V7","V8","V9","V10","V11","V12","V13","V14","V15","V16","V17","V18","V19","V20","V21","V22"
"A",0.540739953517914,0.587999701499939,0.639096796512604,0.736884891986847,0.0131210405379534,-0.00340449437499046,0.0100045595318079,0.198829561471939,-0.205894961953163,0.110249228775501,0,0,0,0,0,0,0,0,0,0,0,0
"B",-0.0401505529880524,0.00547706801444292,-0.214165225625038,-0.0729910209774971,-0.137571737170219,-0.125560447573662,-0.0932428166270256,-0.00321093434467912,-0.174606993794441,0.00665446696802974,0,0,0,0,0,0,0,0,0,0,0,0
"C",0.00129459472373128,-0.0955566689372063,-0.0329996198415756,0.0401092991232872,-0.00662206346169114,-0.255621910095215,-0.00252466485835612,0.291857421398163,-0.0018024651799351,-0.19411289691925,0,0,0,0,0,0,0,0,0,0,0,0
"D",0.0184409581124783,-0.103039227426052,0.0530322529375553,0.0778648257255554,0.482658267021179,0.806008577346802,0.421117156744003,0.0512541383504868,0.0122752971947193,-0.0331604182720184,0,0,0,0,0,0,0,0,0,0,0,0
"E",-0.0650465339422226,0.281688421964645,-0.159496337175369,0.181597009301186,0,-0.138130113482475,0.023193784058094,-0.13153401017189,0.00204985961318016,0.00108015874866396,0,0,0,0,0,0,0,0,0,0,0,0
"G",-0.00159826851449907,-0.0106533337384462,-0.00791465677320957,-0.220049113035202,-0.00296047632582486,0.185209557414055,-0.00404432788491249,0.0781996324658394,0.517002463340759,0.367296576499939,0,0,0,0,0,0,0,0,0,0,0,0
